digraph Tree {
node [shape=box] ;
0 [label="max rfft y <= 1.475\nentropy = 1.996\nsamples = 6429\nvalue = [1527, 1801, 1507, 1594]"] ;
1 [label="y_mean <= -0.028\nentropy = 1.906\nsamples = 5239\nvalue = [1480, 1759, 581, 1419]"] ;
0 -> 1 [labeldistance=2.5, labelangle=45, headlabel="True"] ;
2 [label="y_mean <= -0.167\nentropy = 1.679\nsamples = 442\nvalue = [76, 39, 242, 85]"] ;
1 -> 2 ;
3 [label="max rfft z <= 2.489561726512739e+19\nentropy = 0.324\nsamples = 62\nvalue = [0, 1, 59, 2]"] ;
2 -> 3 ;
4 [label="max rfft y <= 0.452\nentropy = 0.241\nsamples = 61\nvalue = [0, 1, 59, 1]"] ;
3 -> 4 ;
5 [label="entropy = 0.0\nsamples = 41\nvalue = [0, 0, 41, 0]"] ;
4 -> 5 ;
6 [label="max rfft y <= 0.489\nentropy = 0.569\nsamples = 20\nvalue = [0, 1, 18, 1]"] ;
4 -> 6 ;
7 [label="entropy = 0.0\nsamples = 1\nvalue = [0, 0, 0, 1]"] ;
6 -> 7 ;
8 [label="y_mean <= -0.389\nentropy = 0.297\nsamples = 19\nvalue = [0, 1, 18, 0]"] ;
6 -> 8 ;
9 [label="y_mean <= -0.474\nentropy = 0.722\nsamples = 5\nvalue = [0, 1, 4, 0]"] ;
8 -> 9 ;
10 [label="entropy = 0.0\nsamples = 4\nvalue = [0, 0, 4, 0]"] ;
9 -> 10 ;
11 [label="entropy = 0.0\nsamples = 1\nvalue = [0, 1, 0, 0]"] ;
9 -> 11 ;
12 [label="entropy = 0.0\nsamples = 14\nvalue = [0, 0, 14, 0]"] ;
8 -> 12 ;
13 [label="entropy = 0.0\nsamples = 1\nvalue = [0, 0, 0, 1]"] ;
3 -> 13 ;
14 [label="max rfft y <= 0.117\nentropy = 1.784\nsamples = 380\nvalue = [76, 38, 183, 83]"] ;
2 -> 14 ;
15 [label="y_mean <= -0.051\nentropy = 1.237\nsamples = 63\nvalue = [4, 4, 46, 9]"] ;
14 -> 15 ;
16 [label="max rfft y <= 0.015\nentropy = 0.807\nsamples = 41\nvalue = [2, 0, 34, 5]"] ;
15 -> 16 ;
17 [label="max rfft y <= -0.038\nentropy = 1.096\nsamples = 22\nvalue = [2, 0, 16, 4]"] ;
16 -> 17 ;
18 [label="max rfft y <= -0.176\nentropy = 0.75\nsamples = 14\nvalue = [0, 0, 11, 3]"] ;
17 -> 18 ;
19 [label="max rfft y <= -0.2\nentropy = 0.881\nsamples = 10\nvalue = [0, 0, 7, 3]"] ;
18 -> 19 ;
20 [label="y_mean <= -0.119\nentropy = 0.764\nsamples = 9\nvalue = [0, 0, 7, 2]"] ;
19 -> 20 ;
21 [label="entropy = 0.971\nsamples = 5\nvalue = [0, 0, 3, 2]"] ;
20 -> 21 ;
22 [label="entropy = 0.0\nsamples = 4\nvalue = [0, 0, 4, 0]"] ;
20 -> 22 ;
23 [label="entropy = 0.0\nsamples = 1\nvalue = [0, 0, 0, 1]"] ;
19 -> 23 ;
24 [label="entropy = 0.0\nsamples = 4\nvalue = [0, 0, 4, 0]"] ;
18 -> 24 ;
25 [label="max rfft y <= 0.01\nentropy = 1.299\nsamples = 8\nvalue = [2, 0, 5, 1]"] ;
17 -> 25 ;
26 [label="max rfft y <= -0.029\nentropy = 0.863\nsamples = 7\nvalue = [2, 0, 5, 0]"] ;
25 -> 26 ;
27 [label="entropy = 0.0\nsamples = 1\nvalue = [1, 0, 0, 0]"] ;
26 -> 27 ;
28 [label="y_mean <= -0.072\nentropy = 0.65\nsamples = 6\nvalue = [1, 0, 5, 0]"] ;
26 -> 28 ;
29 [label="entropy = 0.918\nsamples = 3\nvalue = [1, 0, 2, 0]"] ;
28 -> 29 ;
30 [label="entropy = 0.0\nsamples = 3\nvalue = [0, 0, 3, 0]"] ;
28 -> 30 ;
31 [label="entropy = 0.0\nsamples = 1\nvalue = [0, 0, 0, 1]"] ;
25 -> 31 ;
32 [label="y_mean <= -0.066\nentropy = 0.297\nsamples = 19\nvalue = [0, 0, 18, 1]"] ;
16 -> 32 ;
33 [label="entropy = 0.0\nsamples = 12\nvalue = [0, 0, 12, 0]"] ;
32 -> 33 ;
34 [label="y_mean <= -0.064\nentropy = 0.592\nsamples = 7\nvalue = [0, 0, 6, 1]"] ;
32 -> 34 ;
35 [label="entropy = 0.0\nsamples = 1\nvalue = [0, 0, 0, 1]"] ;
34 -> 35 ;
36 [label="entropy = 0.0\nsamples = 6\nvalue = [0, 0, 6, 0]"] ;
34 -> 36 ;
37 [label="y_mean <= -0.03\nentropy = 1.686\nsamples = 22\nvalue = [2, 4, 12, 4]"] ;
15 -> 37 ;
38 [label="y_mean <= -0.049\nentropy = 1.378\nsamples = 17\nvalue = [1, 4, 11, 1]"] ;
37 -> 38 ;
39 [label="max rfft y <= -0.052\nentropy = 1.0\nsamples = 2\nvalue = [1, 1, 0, 0]"] ;
38 -> 39 ;
40 [label="entropy = 0.0\nsamples = 1\nvalue = [1, 0, 0, 0]"] ;
39 -> 40 ;
41 [label="entropy = 0.0\nsamples = 1\nvalue = [0, 1, 0, 0]"] ;
39 -> 41 ;
42 [label="y_mean <= -0.04\nentropy = 1.053\nsamples = 15\nvalue = [0, 3, 11, 1]"] ;
38 -> 42 ;
43 [label="y_mean <= -0.042\nentropy = 0.592\nsamples = 7\nvalue = [0, 0, 6, 1]"] ;
42 -> 43 ;
44 [label="entropy = 0.0\nsamples = 5\nvalue = [0, 0, 5, 0]"] ;
43 -> 44 ;
45 [label="max rfft y <= 0.011\nentropy = 1.0\nsamples = 2\nvalue = [0, 0, 1, 1]"] ;
43 -> 45 ;
46 [label="entropy = 0.0\nsamples = 1\nvalue = [0, 0, 0, 1]"] ;
45 -> 46 ;
47 [label="entropy = 0.0\nsamples = 1\nvalue = [0, 0, 1, 0]"] ;
45 -> 47 ;
48 [label="y_mean <= -0.032\nentropy = 0.954\nsamples = 8\nvalue = [0, 3, 5, 0]"] ;
42 -> 48 ;
49 [label="max rfft y <= 0.043\nentropy = 0.971\nsamples = 5\nvalue = [0, 3, 2, 0]"] ;
48 -> 49 ;
50 [label="entropy = 0.0\nsamples = 2\nvalue = [0, 2, 0, 0]"] ;
49 -> 50 ;
51 [label="entropy = 0.918\nsamples = 3\nvalue = [0, 1, 2, 0]"] ;
49 -> 51 ;
52 [label="entropy = 0.0\nsamples = 3\nvalue = [0, 0, 3, 0]"] ;
48 -> 52 ;
53 [label="max rfft y <= 0.047\nentropy = 1.371\nsamples = 5\nvalue = [1, 0, 1, 3]"] ;
37 -> 53 ;
54 [label="max rfft y <= 0.009\nentropy = 1.0\nsamples = 2\nvalue = [1, 0, 1, 0]"] ;
53 -> 54 ;
55 [label="entropy = 0.0\nsamples = 1\nvalue = [0, 0, 1, 0]"] ;
54 -> 55 ;
56 [label="entropy = 0.0\nsamples = 1\nvalue = [1, 0, 0, 0]"] ;
54 -> 56 ;
57 [label="entropy = 0.0\nsamples = 3\nvalue = [0, 0, 0, 3]"] ;
53 -> 57 ;
58 [label="max rfft x <= 1.65161088319488e+16\nentropy = 1.844\nsamples = 317\nvalue = [72, 34, 137, 74]"] ;
14 -> 58 ;
59 [label="y_mean <= -0.095\nentropy = 1.837\nsamples = 304\nvalue = [70, 34, 135, 65]"] ;
58 -> 59 ;
60 [label="max rfft y <= 0.547\nentropy = 1.629\nsamples = 61\nvalue = [10, 11, 35, 5]"] ;
59 -> 60 ;
61 [label="y_mean <= -0.164\nentropy = 1.264\nsamples = 23\nvalue = [0, 5, 15, 3]"] ;
60 -> 61 ;
62 [label="entropy = 0.0\nsamples = 1\nvalue = [0, 1, 0, 0]"] ;
61 -> 62 ;
63 [label="max rfft y <= 0.205\nentropy = 1.216\nsamples = 22\nvalue = [0, 4, 15, 3]"] ;
61 -> 63 ;
64 [label="max rfft y <= 0.184\nentropy = 0.918\nsamples = 6\nvalue = [0, 0, 4, 2]"] ;
63 -> 64 ;
65 [label="entropy = 0.0\nsamples = 4\nvalue = [0, 0, 4, 0]"] ;
64 -> 65 ;
66 [label="entropy = 0.0\nsamples = 2\nvalue = [0, 0, 0, 2]"] ;
64 -> 66 ;
67 [label="max rfft y <= 0.439\nentropy = 1.122\nsamples = 16\nvalue = [0, 4, 11, 1]"] ;
63 -> 67 ;
68 [label="entropy = 0.811\nsamples = 12\nvalue = [0, 3, 9, 0]"] ;
67 -> 68 ;
69 [label="entropy = 1.5\nsamples = 4\nvalue = [0, 1, 2, 1]"] ;
67 -> 69 ;
70 [label="max rfft y <= 0.619\nentropy = 1.638\nsamples = 38\nvalue = [10, 6, 20, 2]"] ;
60 -> 70 ;
71 [label="max rfft y <= 0.601\nentropy = 0.722\nsamples = 5\nvalue = [4, 1, 0, 0]"] ;
70 -> 71 ;
72 [label="entropy = 0.0\nsamples = 3\nvalue = [3, 0, 0, 0]"] ;
71 -> 72 ;
73 [label="max rfft y <= 0.611\nentropy = 1.0\nsamples = 2\nvalue = [1, 1, 0, 0]"] ;
71 -> 73 ;
74 [label="entropy = 0.0\nsamples = 1\nvalue = [0, 1, 0, 0]"] ;
73 -> 74 ;
75 [label="entropy = 0.0\nsamples = 1\nvalue = [1, 0, 0, 0]"] ;
73 -> 75 ;
76 [label="y_mean <= -0.107\nentropy = 1.543\nsamples = 33\nvalue = [6, 5, 20, 2]"] ;
70 -> 76 ;
77 [label="y_mean <= -0.109\nentropy = 1.76\nsamples = 23\nvalue = [6, 4, 11, 2]"] ;
76 -> 77 ;
78 [label="entropy = 1.723\nsamples = 21\nvalue = [4, 4, 11, 2]"] ;
77 -> 78 ;
79 [label="entropy = 0.0\nsamples = 2\nvalue = [2, 0, 0, 0]"] ;
77 -> 79 ;
80 [label="max rfft y <= 1.199\nentropy = 0.469\nsamples = 10\nvalue = [0, 1, 9, 0]"] ;
76 -> 80 ;
81 [label="entropy = 0.0\nsamples = 9\nvalue = [0, 0, 9, 0]"] ;
80 -> 81 ;
82 [label="entropy = 0.0\nsamples = 1\nvalue = [0, 1, 0, 0]"] ;
80 -> 82 ;
83 [label="y_mean <= -0.081\nentropy = 1.846\nsamples = 243\nvalue = [60, 23, 100, 60]"] ;
59 -> 83 ;
84 [label="y_mean <= -0.09\nentropy = 1.342\nsamples = 22\nvalue = [0, 2, 11, 9]"] ;
83 -> 84 ;
85 [label="y_mean <= -0.093\nentropy = 0.811\nsamples = 8\nvalue = [0, 0, 2, 6]"] ;
84 -> 85 ;
86 [label="entropy = 0.0\nsamples = 3\nvalue = [0, 0, 0, 3]"] ;
85 -> 86 ;
87 [label="y_mean <= -0.091\nentropy = 0.971\nsamples = 5\nvalue = [0, 0, 2, 3]"] ;
85 -> 87 ;
88 [label="entropy = 0.0\nsamples = 2\nvalue = [0, 0, 2, 0]"] ;
87 -> 88 ;
89 [label="entropy = 0.0\nsamples = 3\nvalue = [0, 0, 0, 3]"] ;
87 -> 89 ;
90 [label="max rfft y <= 0.502\nentropy = 1.287\nsamples = 14\nvalue = [0, 2, 9, 3]"] ;
84 -> 90 ;
91 [label="entropy = 0.0\nsamples = 6\nvalue = [0, 0, 6, 0]"] ;
90 -> 91 ;
92 [label="max rfft y <= 0.688\nentropy = 1.561\nsamples = 8\nvalue = [0, 2, 3, 3]"] ;
90 -> 92 ;
93 [label="entropy = 0.0\nsamples = 2\nvalue = [0, 0, 0, 2]"] ;
92 -> 93 ;
94 [label="entropy = 1.459\nsamples = 6\nvalue = [0, 2, 3, 1]"] ;
92 -> 94 ;
95 [label="max rfft y <= 0.412\nentropy = 1.85\nsamples = 221\nvalue = [60, 21, 89, 51]"] ;
83 -> 95 ;
96 [label="y_mean <= -0.032\nentropy = 1.706\nsamples = 81\nvalue = [28, 5, 36, 12]"] ;
95 -> 96 ;
97 [label="max rfft y <= 0.233\nentropy = 1.728\nsamples = 73\nvalue = [22, 5, 34, 12]"] ;
96 -> 97 ;
98 [label="entropy = 1.703\nsamples = 32\nvalue = [5, 3, 17, 7]"] ;
97 -> 98 ;
99 [label="entropy = 1.636\nsamples = 41\nvalue = [17, 2, 17, 5]"] ;
97 -> 99 ;
100 [label="y_mean <= -0.031\nentropy = 0.811\nsamples = 8\nvalue = [6, 0, 2, 0]"] ;
96 -> 100 ;
101 [label="entropy = 0.0\nsamples = 3\nvalue = [3, 0, 0, 0]"] ;
100 -> 101 ;
102 [label="entropy = 0.971\nsamples = 5\nvalue = [3, 0, 2, 0]"] ;
100 -> 102 ;
103 [label="max rfft y <= 0.446\nentropy = 1.888\nsamples = 140\nvalue = [32, 16, 53, 39]"] ;
95 -> 103 ;
104 [label="entropy = 0.0\nsamples = 5\nvalue = [0, 0, 0, 5]"] ;
103 -> 104 ;
105 [label="y_mean <= -0.075\nentropy = 1.888\nsamples = 135\nvalue = [32, 16, 53, 34]"] ;
103 -> 105 ;
106 [label="entropy = 0.722\nsamples = 10\nvalue = [0, 0, 8, 2]"] ;
105 -> 106 ;
107 [label="entropy = 1.917\nsamples = 125\nvalue = [32, 16, 45, 32]"] ;
105 -> 107 ;
108 [label="max rfft x <= 1.6666519660396544e+16\nentropy = 1.198\nsamples = 13\nvalue = [2, 0, 2, 9]"] ;
58 -> 108 ;
109 [label="entropy = 0.0\nsamples = 8\nvalue = [0, 0, 0, 8]"] ;
108 -> 109 ;
110 [label="max rfft z <= 1.4171636156730442e+19\nentropy = 1.522\nsamples = 5\nvalue = [2, 0, 2, 1]"] ;
108 -> 110 ;
111 [label="pitch <= -88.005\nentropy = 0.918\nsamples = 3\nvalue = [0, 0, 2, 1]"] ;
110 -> 111 ;
112 [label="entropy = 0.0\nsamples = 1\nvalue = [0, 0, 0, 1]"] ;
111 -> 112 ;
113 [label="entropy = 0.0\nsamples = 2\nvalue = [0, 0, 2, 0]"] ;
111 -> 113 ;
114 [label="entropy = 0.0\nsamples = 2\nvalue = [2, 0, 0, 0]"] ;
110 -> 114 ;
115 [label="max rfft y <= 0.044\nentropy = 1.833\nsamples = 4797\nvalue = [1404, 1720, 339, 1334]"] ;
1 -> 115 ;
116 [label="y_mean <= -0.004\nentropy = 1.724\nsamples = 1438\nvalue = [672, 415, 87, 264]"] ;
115 -> 116 ;
117 [label="max rfft y <= 0.038\nentropy = 1.989\nsamples = 81\nvalue = [21, 18, 18, 24]"] ;
116 -> 117 ;
118 [label="y_mean <= -0.011\nentropy = 1.993\nsamples = 73\nvalue = [21, 16, 18, 18]"] ;
117 -> 118 ;
119 [label="max rfft y <= -0.247\nentropy = 1.691\nsamples = 21\nvalue = [10, 4, 6, 1]"] ;
118 -> 119 ;
120 [label="entropy = 0.0\nsamples = 2\nvalue = [0, 0, 2, 0]"] ;
119 -> 120 ;
121 [label="max rfft y <= 0.021\nentropy = 1.657\nsamples = 19\nvalue = [10, 4, 4, 1]"] ;
119 -> 121 ;
122 [label="max rfft y <= 0.015\nentropy = 1.689\nsamples = 14\nvalue = [7, 2, 4, 1]"] ;
121 -> 122 ;
123 [label="y_mean <= -0.014\nentropy = 1.614\nsamples = 12\nvalue = [7, 2, 2, 1]"] ;
122 -> 123 ;
124 [label="entropy = 1.149\nsamples = 7\nvalue = [5, 1, 0, 1]"] ;
123 -> 124 ;
125 [label="entropy = 1.522\nsamples = 5\nvalue = [2, 1, 2, 0]"] ;
123 -> 125 ;
126 [label="entropy = 0.0\nsamples = 2\nvalue = [0, 0, 2, 0]"] ;
122 -> 126 ;
127 [label="y_mean <= -0.024\nentropy = 0.971\nsamples = 5\nvalue = [3, 2, 0, 0]"] ;
121 -> 127 ;
128 [label="entropy = 0.0\nsamples = 1\nvalue = [0, 1, 0, 0]"] ;
127 -> 128 ;
129 [label="max rfft y <= 0.034\nentropy = 0.811\nsamples = 4\nvalue = [3, 1, 0, 0]"] ;
127 -> 129 ;
130 [label="entropy = 0.0\nsamples = 3\nvalue = [3, 0, 0, 0]"] ;
129 -> 130 ;
131 [label="entropy = 0.0\nsamples = 1\nvalue = [0, 1, 0, 0]"] ;
129 -> 131 ;
132 [label="max rfft y <= 0.026\nentropy = 1.978\nsamples = 52\nvalue = [11, 12, 12, 17]"] ;
118 -> 132 ;
133 [label="max rfft y <= 0.022\nentropy = 1.902\nsamples = 40\nvalue = [11, 9, 5, 15]"] ;
132 -> 133 ;
134 [label="y_mean <= -0.005\nentropy = 1.969\nsamples = 29\nvalue = [7, 9, 5, 8]"] ;
133 -> 134 ;
135 [label="max rfft y <= 0.005\nentropy = 1.93\nsamples = 23\nvalue = [7, 8, 4, 4]"] ;
134 -> 135 ;
136 [label="entropy = 1.435\nsamples = 11\nvalue = [3, 6, 0, 2]"] ;
135 -> 136 ;
137 [label="entropy = 1.918\nsamples = 12\nvalue = [4, 2, 4, 2]"] ;
135 -> 137 ;
138 [label="max rfft y <= -0.064\nentropy = 1.252\nsamples = 6\nvalue = [0, 1, 1, 4]"] ;
134 -> 138 ;
139 [label="entropy = 0.0\nsamples = 1\nvalue = [0, 0, 1, 0]"] ;
138 -> 139 ;
140 [label="entropy = 0.722\nsamples = 5\nvalue = [0, 1, 0, 4]"] ;
138 -> 140 ;
141 [label="y_mean <= -0.005\nentropy = 0.946\nsamples = 11\nvalue = [4, 0, 0, 7]"] ;
133 -> 141 ;
142 [label="x_mean <= -1.1806298848215695e+18\nentropy = 0.544\nsamples = 8\nvalue = [1, 0, 0, 7]"] ;
141 -> 142 ;
143 [label="entropy = 0.0\nsamples = 7\nvalue = [0, 0, 0, 7]"] ;
142 -> 143 ;
144 [label="entropy = 0.0\nsamples = 1\nvalue = [1, 0, 0, 0]"] ;
142 -> 144 ;
145 [label="entropy = 0.0\nsamples = 3\nvalue = [3, 0, 0, 0]"] ;
141 -> 145 ;
146 [label="y_mean <= -0.005\nentropy = 1.384\nsamples = 12\nvalue = [0, 3, 7, 2]"] ;
132 -> 146 ;
147 [label="max rfft y <= 0.034\nentropy = 0.881\nsamples = 10\nvalue = [0, 3, 7, 0]"] ;
146 -> 147 ;
148 [label="y_mean <= -0.007\nentropy = 1.0\nsamples = 6\nvalue = [0, 3, 3, 0]"] ;
147 -> 148 ;
149 [label="entropy = 0.0\nsamples = 2\nvalue = [0, 2, 0, 0]"] ;
148 -> 149 ;
150 [label="entropy = 0.811\nsamples = 4\nvalue = [0, 1, 3, 0]"] ;
148 -> 150 ;
151 [label="entropy = 0.0\nsamples = 4\nvalue = [0, 0, 4, 0]"] ;
147 -> 151 ;
152 [label="entropy = 0.0\nsamples = 2\nvalue = [0, 0, 0, 2]"] ;
146 -> 152 ;
153 [label="y_mean <= -0.006\nentropy = 0.811\nsamples = 8\nvalue = [0, 2, 0, 6]"] ;
117 -> 153 ;
154 [label="entropy = 0.0\nsamples = 5\nvalue = [0, 0, 0, 5]"] ;
153 -> 154 ;
155 [label="max rfft y <= 0.039\nentropy = 0.918\nsamples = 3\nvalue = [0, 2, 0, 1]"] ;
153 -> 155 ;
156 [label="entropy = 0.0\nsamples = 1\nvalue = [0, 0, 0, 1]"] ;
155 -> 156 ;
157 [label="entropy = 0.0\nsamples = 2\nvalue = [0, 2, 0, 0]"] ;
155 -> 157 ;
158 [label="max rfft x <= 1.6691382152331264e+16\nentropy = 1.688\nsamples = 1357\nvalue = [651, 397, 69, 240]"] ;
116 -> 158 ;
159 [label="max rfft x <= 5347392660439040.0\nentropy = 1.693\nsamples = 1345\nvalue = [639, 397, 69, 240]"] ;
158 -> 159 ;
160 [label="max rfft y <= 0.037\nentropy = 1.693\nsamples = 1334\nvalue = [639, 386, 69, 240]"] ;
159 -> 160 ;
161 [label="max rfft y <= 0.009\nentropy = 1.663\nsamples = 1052\nvalue = [532, 285, 53, 182]"] ;
160 -> 161 ;
162 [label="max rfft y <= 0.009\nentropy = 1.635\nsamples = 71\nvalue = [25, 33, 3, 10]"] ;
161 -> 162 ;
163 [label="max rfft y <= 0.006\nentropy = 1.624\nsamples = 65\nvalue = [25, 28, 2, 10]"] ;
162 -> 163 ;
164 [label="entropy = 1.68\nsamples = 40\nvalue = [10, 20, 2, 8]"] ;
163 -> 164 ;
165 [label="entropy = 1.26\nsamples = 25\nvalue = [15, 8, 0, 2]"] ;
163 -> 165 ;
166 [label="y_mean <= 0.0\nentropy = 0.65\nsamples = 6\nvalue = [0, 5, 1, 0]"] ;
162 -> 166 ;
167 [label="entropy = 0.0\nsamples = 5\nvalue = [0, 5, 0, 0]"] ;
166 -> 167 ;
168 [label="entropy = 0.0\nsamples = 1\nvalue = [0, 0, 1, 0]"] ;
166 -> 168 ;
169 [label="max rfft y <= 0.037\nentropy = 1.655\nsamples = 981\nvalue = [507, 252, 50, 172]"] ;
161 -> 169 ;
170 [label="y_mean <= -0.001\nentropy = 1.66\nsamples = 967\nvalue = [496, 252, 50, 169]"] ;
169 -> 170 ;
171 [label="entropy = 1.663\nsamples = 334\nvalue = [158, 105, 14, 57]"] ;
170 -> 171 ;
172 [label="entropy = 1.65\nsamples = 633\nvalue = [338, 147, 36, 112]"] ;
170 -> 172 ;
173 [label="y_mean <= 0.002\nentropy = 0.75\nsamples = 14\nvalue = [11, 0, 0, 3]"] ;
169 -> 173 ;
174 [label="entropy = 0.439\nsamples = 11\nvalue = [10, 0, 0, 1]"] ;
173 -> 174 ;
175 [label="entropy = 0.918\nsamples = 3\nvalue = [1, 0, 0, 2]"] ;
173 -> 175 ;
176 [label="max rfft y <= 0.044\nentropy = 1.765\nsamples = 282\nvalue = [107, 101, 16, 58]"] ;
160 -> 176 ;
177 [label="y_mean <= -0.002\nentropy = 1.759\nsamples = 268\nvalue = [97, 100, 14, 57]"] ;
176 -> 177 ;
178 [label="y_mean <= -0.002\nentropy = 1.487\nsamples = 27\nvalue = [13, 5, 0, 9]"] ;
177 -> 178 ;
179 [label="entropy = 1.469\nsamples = 25\nvalue = [13, 5, 0, 7]"] ;
178 -> 179 ;
180 [label="entropy = 0.0\nsamples = 2\nvalue = [0, 0, 0, 2]"] ;
178 -> 180 ;
181 [label="y_mean <= 0.002\nentropy = 1.762\nsamples = 241\nvalue = [84, 95, 14, 48]"] ;
177 -> 181 ;
182 [label="entropy = 1.745\nsamples = 236\nvalue = [83, 95, 13, 45]"] ;
181 -> 182 ;
183 [label="entropy = 1.371\nsamples = 5\nvalue = [1, 0, 1, 3]"] ;
181 -> 183 ;
184 [label="y_mean <= -0.003\nentropy = 1.292\nsamples = 14\nvalue = [10, 1, 2, 1]"] ;
176 -> 184 ;
185 [label="max rfft y <= 0.044\nentropy = 1.0\nsamples = 2\nvalue = [0, 1, 0, 1]"] ;
184 -> 185 ;
186 [label="entropy = 0.0\nsamples = 1\nvalue = [0, 1, 0, 0]"] ;
185 -> 186 ;
187 [label="entropy = 0.0\nsamples = 1\nvalue = [0, 0, 0, 1]"] ;
185 -> 187 ;
188 [label="max rfft y <= 0.044\nentropy = 0.65\nsamples = 12\nvalue = [10, 0, 2, 0]"] ;
184 -> 188 ;
189 [label="entropy = 0.971\nsamples = 5\nvalue = [3, 0, 2, 0]"] ;
188 -> 189 ;
190 [label="entropy = 0.0\nsamples = 7\nvalue = [7, 0, 0, 0]"] ;
188 -> 190 ;
191 [label="entropy = 0.0\nsamples = 11\nvalue = [0, 11, 0, 0]"] ;
159 -> 191 ;
192 [label="entropy = 0.0\nsamples = 12\nvalue = [12, 0, 0, 0]"] ;
158 -> 192 ;
193 [label="max rfft y <= 0.472\nentropy = 1.815\nsamples = 3359\nvalue = [732, 1305, 252, 1070]"] ;
115 -> 193 ;
194 [label="max rfft y <= 0.153\nentropy = 1.72\nsamples = 2827\nvalue = [563, 1221, 132, 911]"] ;
193 -> 194 ;
195 [label="max rfft y <= 0.059\nentropy = 1.648\nsamples = 1906\nvalue = [333, 920, 72, 581]"] ;
194 -> 195 ;
196 [label="y_mean <= -0.004\nentropy = 1.742\nsamples = 517\nvalue = [132, 231, 27, 127]"] ;
195 -> 196 ;
197 [label="y_mean <= -0.009\nentropy = 1.604\nsamples = 32\nvalue = [5, 3, 5, 19]"] ;
196 -> 197 ;
198 [label="y_mean <= -0.014\nentropy = 1.361\nsamples = 10\nvalue = [1, 0, 4, 5]"] ;
197 -> 198 ;
199 [label="y_mean <= -0.026\nentropy = 0.65\nsamples = 6\nvalue = [0, 0, 1, 5]"] ;
198 -> 199 ;
200 [label="entropy = 1.0\nsamples = 2\nvalue = [0, 0, 1, 1]"] ;
199 -> 200 ;
201 [label="entropy = 0.0\nsamples = 4\nvalue = [0, 0, 0, 4]"] ;
199 -> 201 ;
202 [label="y_mean <= -0.011\nentropy = 0.811\nsamples = 4\nvalue = [1, 0, 3, 0]"] ;
198 -> 202 ;
203 [label="entropy = 1.0\nsamples = 2\nvalue = [1, 0, 1, 0]"] ;
202 -> 203 ;
204 [label="entropy = 0.0\nsamples = 2\nvalue = [0, 0, 2, 0]"] ;
202 -> 204 ;
205 [label="max rfft y <= 0.051\nentropy = 1.457\nsamples = 22\nvalue = [4, 3, 1, 14]"] ;
197 -> 205 ;
206 [label="y_mean <= -0.005\nentropy = 1.295\nsamples = 10\nvalue = [3, 0, 1, 6]"] ;
205 -> 206 ;
207 [label="entropy = 0.918\nsamples = 9\nvalue = [3, 0, 0, 6]"] ;
206 -> 207 ;
208 [label="entropy = 0.0\nsamples = 1\nvalue = [0, 0, 1, 0]"] ;
206 -> 208 ;
209 [label="max rfft y <= 0.052\nentropy = 1.189\nsamples = 12\nvalue = [1, 3, 0, 8]"] ;
205 -> 209 ;
210 [label="entropy = 0.0\nsamples = 2\nvalue = [0, 2, 0, 0]"] ;
209 -> 210 ;
211 [label="entropy = 0.922\nsamples = 10\nvalue = [1, 1, 0, 8]"] ;
209 -> 211 ;
212 [label="y_mean <= 0.003\nentropy = 1.703\nsamples = 485\nvalue = [127, 228, 22, 108]"] ;
196 -> 212 ;
213 [label="max rfft y <= 0.044\nentropy = 1.707\nsamples = 465\nvalue = [119, 217, 21, 108]"] ;
212 -> 213 ;
214 [label="entropy = 0.0\nsamples = 7\nvalue = [0, 7, 0, 0]"] ;
213 -> 214 ;
215 [label="max rfft y <= 0.053\nentropy = 1.716\nsamples = 458\nvalue = [119, 210, 21, 108]"] ;
213 -> 215 ;
216 [label="entropy = 1.724\nsamples = 303\nvalue = [85, 141, 17, 60]"] ;
215 -> 216 ;
217 [label="entropy = 1.66\nsamples = 155\nvalue = [34, 69, 4, 48]"] ;
215 -> 217 ;
218 [label="max rfft y <= 0.058\nentropy = 1.219\nsamples = 20\nvalue = [8, 11, 1, 0]"] ;
212 -> 218 ;
219 [label="max rfft y <= 0.055\nentropy = 0.964\nsamples = 18\nvalue = [7, 11, 0, 0]"] ;
218 -> 219 ;
220 [label="entropy = 0.0\nsamples = 2\nvalue = [2, 0, 0, 0]"] ;
219 -> 220 ;
221 [label="entropy = 0.896\nsamples = 16\nvalue = [5, 11, 0, 0]"] ;
219 -> 221 ;
222 [label="max rfft y <= 0.058\nentropy = 1.0\nsamples = 2\nvalue = [1, 0, 1, 0]"] ;
218 -> 222 ;
223 [label="entropy = 0.0\nsamples = 1\nvalue = [0, 0, 1, 0]"] ;
222 -> 223 ;
224 [label="entropy = 0.0\nsamples = 1\nvalue = [1, 0, 0, 0]"] ;
222 -> 224 ;
225 [label="y_mean <= 0.003\nentropy = 1.593\nsamples = 1389\nvalue = [201, 689, 45, 454]"] ;
195 -> 225 ;
226 [label="y_mean <= -0.004\nentropy = 1.554\nsamples = 1058\nvalue = [125, 559, 40, 334]"] ;
225 -> 226 ;
227 [label="x_mean <= -1.632446494306992e+18\nentropy = 1.792\nsamples = 179\nvalue = [45, 65, 10, 59]"] ;
226 -> 227 ;
228 [label="max rfft y <= 0.097\nentropy = 1.782\nsamples = 171\nvalue = [38, 64, 10, 59]"] ;
227 -> 228 ;
229 [label="entropy = 1.908\nsamples = 75\nvalue = [19, 27, 9, 20]"] ;
228 -> 229 ;
230 [label="entropy = 1.589\nsamples = 96\nvalue = [19, 37, 1, 39]"] ;
228 -> 230 ;
231 [label="y_mean <= -0.013\nentropy = 0.544\nsamples = 8\nvalue = [7, 1, 0, 0]"] ;
227 -> 231 ;
232 [label="entropy = 0.0\nsamples = 1\nvalue = [0, 1, 0, 0]"] ;
231 -> 232 ;
233 [label="entropy = 0.0\nsamples = 7\nvalue = [7, 0, 0, 0]"] ;
231 -> 233 ;
234 [label="max rfft x <= 1.0238947154198528e+16\nentropy = 1.473\nsamples = 879\nvalue = [80, 494, 30, 275]"] ;
226 -> 234 ;
235 [label="y_mean <= 0.0\nentropy = 1.485\nsamples = 862\nvalue = [80, 477, 30, 275]"] ;
234 -> 235 ;
236 [label="entropy = 1.557\nsamples = 505\nvalue = [58, 279, 24, 144]"] ;
235 -> 236 ;
237 [label="entropy = 1.349\nsamples = 357\nvalue = [22, 198, 6, 131]"] ;
235 -> 237 ;
238 [label="entropy = 0.0\nsamples = 17\nvalue = [0, 17, 0, 0]"] ;
234 -> 238 ;
239 [label="max rfft x <= 1.6691382689202176e+16\nentropy = 1.639\nsamples = 331\nvalue = [76, 130, 5, 120]"] ;
225 -> 239 ;
240 [label="max rfft y <= 0.059\nentropy = 1.634\nsamples = 328\nvalue = [73, 130, 5, 120]"] ;
239 -> 240 ;
241 [label="entropy = 0.0\nsamples = 1\nvalue = [0, 0, 1, 0]"] ;
240 -> 241 ;
242 [label="max rfft x <= 1.2749836977700864e+16\nentropy = 1.62\nsamples = 327\nvalue = [73, 130, 4, 120]"] ;
240 -> 242 ;
243 [label="entropy = 1.624\nsamples = 323\nvalue = [73, 126, 4, 120]"] ;
242 -> 243 ;
244 [label="entropy = 0.0\nsamples = 4\nvalue = [0, 4, 0, 0]"] ;
242 -> 244 ;
245 [label="entropy = 0.0\nsamples = 3\nvalue = [3, 0, 0, 0]"] ;
239 -> 245 ;
246 [label="y_mean <= 0.008\nentropy = 1.814\nsamples = 921\nvalue = [230, 301, 60, 330]"] ;
194 -> 246 ;
247 [label="y_mean <= -0.007\nentropy = 1.78\nsamples = 656\nvalue = [126, 221, 45, 264]"] ;
246 -> 247 ;
248 [label="max rfft y <= 0.154\nentropy = 1.895\nsamples = 189\nvalue = [62, 47, 20, 60]"] ;
247 -> 248 ;
249 [label="entropy = 0.0\nsamples = 2\nvalue = [0, 0, 2, 0]"] ;
248 -> 249 ;
250 [label="max rfft y <= 0.19\nentropy = 1.88\nsamples = 187\nvalue = [62, 47, 18, 60]"] ;
248 -> 250 ;
251 [label="y_mean <= -0.009\nentropy = 1.585\nsamples = 34\nvalue = [18, 6, 1, 9]"] ;
250 -> 251 ;
252 [label="entropy = 1.254\nsamples = 27\nvalue = [16, 2, 0, 9]"] ;
251 -> 252 ;
253 [label="entropy = 1.379\nsamples = 7\nvalue = [2, 4, 1, 0]"] ;
251 -> 253 ;
254 [label="y_mean <= -0.008\nentropy = 1.907\nsamples = 153\nvalue = [44, 41, 17, 51]"] ;
250 -> 254 ;
255 [label="entropy = 1.931\nsamples = 127\nvalue = [35, 32, 17, 43]"] ;
254 -> 255 ;
256 [label="entropy = 1.583\nsamples = 26\nvalue = [9, 9, 0, 8]"] ;
254 -> 256 ;
257 [label="x_mean <= -8.965981484393431e+17\nentropy = 1.672\nsamples = 467\nvalue = [64, 174, 25, 204]"] ;
247 -> 257 ;
258 [label="y_mean <= -0.004\nentropy = 1.664\nsamples = 464\nvalue = [61, 174, 25, 204]"] ;
257 -> 258 ;
259 [label="max rfft y <= 0.176\nentropy = 1.485\nsamples = 63\nvalue = [2, 26, 5, 30]"] ;
258 -> 259 ;
260 [label="entropy = 1.096\nsamples = 11\nvalue = [1, 2, 0, 8]"] ;
259 -> 260 ;
261 [label="entropy = 1.474\nsamples = 52\nvalue = [1, 24, 5, 22]"] ;
259 -> 261 ;
262 [label="y_mean <= 0.007\nentropy = 1.676\nsamples = 401\nvalue = [59, 148, 20, 174]"] ;
258 -> 262 ;
263 [label="entropy = 1.669\nsamples = 384\nvalue = [59, 143, 17, 165]"] ;
262 -> 263 ;
264 [label="entropy = 1.447\nsamples = 17\nvalue = [0, 5, 3, 9]"] ;
262 -> 264 ;
265 [label="entropy = 0.0\nsamples = 3\nvalue = [3, 0, 0, 0]"] ;
257 -> 265 ;
266 [label="max rfft x <= 1.669138107858944e+16\nentropy = 1.785\nsamples = 265\nvalue = [104, 80, 15, 66]"] ;
246 -> 266 ;
267 [label="max rfft y <= 0.458\nentropy = 1.793\nsamples = 260\nvalue = [99, 80, 15, 66]"] ;
266 -> 267 ;
268 [label="max rfft y <= 0.155\nentropy = 1.783\nsamples = 254\nvalue = [99, 77, 14, 64]"] ;
267 -> 268 ;
269 [label="entropy = 0.0\nsamples = 2\nvalue = [2, 0, 0, 0]"] ;
268 -> 269 ;
270 [label="max rfft y <= 0.394\nentropy = 1.787\nsamples = 252\nvalue = [97, 77, 14, 64]"] ;
268 -> 270 ;
271 [label="entropy = 1.802\nsamples = 217\nvalue = [79, 70, 13, 55]"] ;
270 -> 271 ;
272 [label="entropy = 1.608\nsamples = 35\nvalue = [18, 7, 1, 9]"] ;
270 -> 272 ;
273 [label="y_mean <= 0.023\nentropy = 1.459\nsamples = 6\nvalue = [0, 3, 1, 2]"] ;
267 -> 273 ;
274 [label="max rfft y <= 0.463\nentropy = 0.811\nsamples = 4\nvalue = [0, 3, 0, 1]"] ;
273 -> 274 ;
275 [label="entropy = 1.0\nsamples = 2\nvalue = [0, 1, 0, 1]"] ;
274 -> 275 ;
276 [label="entropy = 0.0\nsamples = 2\nvalue = [0, 2, 0, 0]"] ;
274 -> 276 ;
277 [label="max rfft y <= 0.462\nentropy = 1.0\nsamples = 2\nvalue = [0, 0, 1, 1]"] ;
273 -> 277 ;
278 [label="entropy = 0.0\nsamples = 1\nvalue = [0, 0, 1, 0]"] ;
277 -> 278 ;
279 [label="entropy = 0.0\nsamples = 1\nvalue = [0, 0, 0, 1]"] ;
277 -> 279 ;
280 [label="entropy = 0.0\nsamples = 5\nvalue = [5, 0, 0, 0]"] ;
266 -> 280 ;
281 [label="max rfft y <= 0.874\nentropy = 1.951\nsamples = 532\nvalue = [169, 84, 120, 159]"] ;
193 -> 281 ;
282 [label="variance of magnitude <= 7502.147\nentropy = 1.918\nsamples = 332\nvalue = [105, 62, 50, 115]"] ;
281 -> 282 ;
283 [label="y_mean <= 0.027\nentropy = 1.923\nsamples = 326\nvalue = [99, 62, 50, 115]"] ;
282 -> 283 ;
284 [label="y_mean <= 0.026\nentropy = 1.931\nsamples = 242\nvalue = [61, 50, 40, 91]"] ;
283 -> 284 ;
285 [label="y_mean <= -0.017\nentropy = 1.918\nsamples = 234\nvalue = [61, 49, 35, 89]"] ;
284 -> 285 ;
286 [label="y_mean <= -0.023\nentropy = 1.874\nsamples = 30\nvalue = [13, 5, 7, 5]"] ;
285 -> 286 ;
287 [label="entropy = 1.835\nsamples = 14\nvalue = [4, 5, 1, 4]"] ;
286 -> 287 ;
288 [label="entropy = 1.248\nsamples = 16\nvalue = [9, 0, 6, 1]"] ;
286 -> 288 ;
289 [label="max rfft y <= 0.576\nentropy = 1.889\nsamples = 204\nvalue = [48, 44, 28, 84]"] ;
285 -> 289 ;
290 [label="entropy = 1.793\nsamples = 81\nvalue = [26, 11, 9, 35]"] ;
289 -> 290 ;
291 [label="entropy = 1.899\nsamples = 123\nvalue = [22, 33, 19, 49]"] ;
289 -> 291 ;
292 [label="max rfft y <= 0.706\nentropy = 1.299\nsamples = 8\nvalue = [0, 1, 5, 2]"] ;
284 -> 292 ;
293 [label="y_mean <= 0.027\nentropy = 0.863\nsamples = 7\nvalue = [0, 0, 5, 2]"] ;
292 -> 293 ;
294 [label="entropy = 0.65\nsamples = 6\nvalue = [0, 0, 5, 1]"] ;
293 -> 294 ;
295 [label="entropy = 0.0\nsamples = 1\nvalue = [0, 0, 0, 1]"] ;
293 -> 295 ;
296 [label="entropy = 0.0\nsamples = 1\nvalue = [0, 1, 0, 0]"] ;
292 -> 296 ;
297 [label="max rfft y <= 0.798\nentropy = 1.801\nsamples = 84\nvalue = [38, 12, 10, 24]"] ;
283 -> 297 ;
298 [label="y_mean <= 0.027\nentropy = 1.674\nsamples = 75\nvalue = [37, 10, 5, 23]"] ;
297 -> 298 ;
299 [label="max rfft y <= 0.545\nentropy = 0.985\nsamples = 7\nvalue = [4, 3, 0, 0]"] ;
298 -> 299 ;
300 [label="entropy = 0.722\nsamples = 5\nvalue = [4, 1, 0, 0]"] ;
299 -> 300 ;
301 [label="entropy = 0.0\nsamples = 2\nvalue = [0, 2, 0, 0]"] ;
299 -> 301 ;
302 [label="max rfft y <= 0.738\nentropy = 1.65\nsamples = 68\nvalue = [33, 7, 5, 23]"] ;
298 -> 302 ;
303 [label="entropy = 1.675\nsamples = 50\nvalue = [22, 4, 5, 19]"] ;
302 -> 303 ;
304 [label="entropy = 1.347\nsamples = 18\nvalue = [11, 3, 0, 4]"] ;
302 -> 304 ;
305 [label="max rfft y <= 0.871\nentropy = 1.658\nsamples = 9\nvalue = [1, 2, 5, 1]"] ;
297 -> 305 ;
306 [label="max rfft y <= 0.825\nentropy = 1.299\nsamples = 8\nvalue = [1, 2, 5, 0]"] ;
305 -> 306 ;
307 [label="entropy = 0.0\nsamples = 3\nvalue = [0, 0, 3, 0]"] ;
306 -> 307 ;
308 [label="entropy = 1.522\nsamples = 5\nvalue = [1, 2, 2, 0]"] ;
306 -> 308 ;
309 [label="entropy = 0.0\nsamples = 1\nvalue = [0, 0, 0, 1]"] ;
305 -> 309 ;
310 [label="entropy = 0.0\nsamples = 6\nvalue = [6, 0, 0, 0]"] ;
282 -> 310 ;
311 [label="y_mean <= -0.012\nentropy = 1.887\nsamples = 200\nvalue = [64, 22, 70, 44]"] ;
281 -> 311 ;
312 [label="max rfft y <= 1.148\nentropy = 1.419\nsamples = 16\nvalue = [2, 0, 7, 7]"] ;
311 -> 312 ;
313 [label="max rfft y <= 0.961\nentropy = 0.863\nsamples = 7\nvalue = [0, 0, 2, 5]"] ;
312 -> 313 ;
314 [label="entropy = 0.0\nsamples = 1\nvalue = [0, 0, 1, 0]"] ;
313 -> 314 ;
315 [label="max rfft y <= 1.077\nentropy = 0.65\nsamples = 6\nvalue = [0, 0, 1, 5]"] ;
313 -> 315 ;
316 [label="max rfft y <= 1.044\nentropy = 0.918\nsamples = 3\nvalue = [0, 0, 1, 2]"] ;
315 -> 316 ;
317 [label="entropy = 0.0\nsamples = 2\nvalue = [0, 0, 0, 2]"] ;
316 -> 317 ;
318 [label="entropy = 0.0\nsamples = 1\nvalue = [0, 0, 1, 0]"] ;
316 -> 318 ;
319 [label="entropy = 0.0\nsamples = 3\nvalue = [0, 0, 0, 3]"] ;
315 -> 319 ;
320 [label="y_mean <= -0.013\nentropy = 1.436\nsamples = 9\nvalue = [2, 0, 5, 2]"] ;
312 -> 320 ;
321 [label="max rfft y <= 1.362\nentropy = 0.863\nsamples = 7\nvalue = [2, 0, 5, 0]"] ;
320 -> 321 ;
322 [label="entropy = 0.0\nsamples = 3\nvalue = [0, 0, 3, 0]"] ;
321 -> 322 ;
323 [label="y_mean <= -0.018\nentropy = 1.0\nsamples = 4\nvalue = [2, 0, 2, 0]"] ;
321 -> 323 ;
324 [label="entropy = 0.0\nsamples = 2\nvalue = [0, 0, 2, 0]"] ;
323 -> 324 ;
325 [label="entropy = 0.0\nsamples = 2\nvalue = [2, 0, 0, 0]"] ;
323 -> 325 ;
326 [label="entropy = 0.0\nsamples = 2\nvalue = [0, 0, 0, 2]"] ;
320 -> 326 ;
327 [label="y_mean <= -0.012\nentropy = 1.89\nsamples = 184\nvalue = [62, 22, 63, 37]"] ;
311 -> 327 ;
328 [label="entropy = 0.0\nsamples = 2\nvalue = [0, 2, 0, 0]"] ;
327 -> 328 ;
329 [label="y_mean <= 0.018\nentropy = 1.876\nsamples = 182\nvalue = [62, 20, 63, 37]"] ;
327 -> 329 ;
330 [label="y_mean <= 0.01\nentropy = 1.83\nsamples = 69\nvalue = [18, 9, 31, 11]"] ;
329 -> 330 ;
331 [label="max rfft y <= 0.907\nentropy = 1.845\nsamples = 56\nvalue = [18, 6, 22, 10]"] ;
330 -> 331 ;
332 [label="entropy = 1.379\nsamples = 7\nvalue = [0, 1, 4, 2]"] ;
331 -> 332 ;
333 [label="entropy = 1.824\nsamples = 49\nvalue = [18, 5, 18, 8]"] ;
331 -> 333 ;
334 [label="max rfft y <= 1.178\nentropy = 1.14\nsamples = 13\nvalue = [0, 3, 9, 1]"] ;
330 -> 334 ;
335 [label="entropy = 1.449\nsamples = 7\nvalue = [0, 3, 3, 1]"] ;
334 -> 335 ;
336 [label="entropy = 0.0\nsamples = 6\nvalue = [0, 0, 6, 0]"] ;
334 -> 336 ;
337 [label="y_mean <= 0.061\nentropy = 1.86\nsamples = 113\nvalue = [44, 11, 32, 26]"] ;
329 -> 337 ;
338 [label="y_mean <= 0.031\nentropy = 1.747\nsamples = 87\nvalue = [36, 4, 26, 21]"] ;
337 -> 338 ;
339 [label="entropy = 1.477\nsamples = 16\nvalue = [5, 0, 3, 8]"] ;
338 -> 339 ;
340 [label="entropy = 1.731\nsamples = 71\nvalue = [31, 4, 23, 13]"] ;
338 -> 340 ;
341 [label="max rfft y <= 1.401\nentropy = 1.978\nsamples = 26\nvalue = [8, 7, 6, 5]"] ;
337 -> 341 ;
342 [label="entropy = 1.577\nsamples = 14\nvalue = [5, 5, 4, 0]"] ;
341 -> 342 ;
343 [label="entropy = 1.888\nsamples = 12\nvalue = [3, 2, 2, 5]"] ;
341 -> 343 ;
344 [label="max rfft y <= 6.57\nentropy = 1.043\nsamples = 1190\nvalue = [47, 42, 926, 175]"] ;
0 -> 344 [labeldistance=2.5, labelangle=-45, headlabel="False"] ;
345 [label="y_mean <= -0.2\nentropy = 1.329\nsamples = 688\nvalue = [46, 36, 467, 139]"] ;
344 -> 345 ;
346 [label="y_mean <= -0.884\nentropy = 0.637\nsamples = 94\nvalue = [0, 5, 83, 6]"] ;
345 -> 346 ;
347 [label="max rfft y <= 5.209\nentropy = 1.16\nsamples = 17\nvalue = [0, 3, 12, 2]"] ;
346 -> 347 ;
348 [label="y_mean <= -0.904\nentropy = 0.991\nsamples = 13\nvalue = [0, 1, 10, 2]"] ;
347 -> 348 ;
349 [label="max rfft y <= 4.867\nentropy = 0.65\nsamples = 12\nvalue = [0, 0, 10, 2]"] ;
348 -> 349 ;
350 [label="y_mean <= -0.976\nentropy = 0.439\nsamples = 11\nvalue = [0, 0, 10, 1]"] ;
349 -> 350 ;
351 [label="entropy = 0.0\nsamples = 8\nvalue = [0, 0, 8, 0]"] ;
350 -> 351 ;
352 [label="y_mean <= -0.948\nentropy = 0.918\nsamples = 3\nvalue = [0, 0, 2, 1]"] ;
350 -> 352 ;
353 [label="entropy = 0.0\nsamples = 1\nvalue = [0, 0, 0, 1]"] ;
352 -> 353 ;
354 [label="entropy = 0.0\nsamples = 2\nvalue = [0, 0, 2, 0]"] ;
352 -> 354 ;
355 [label="entropy = 0.0\nsamples = 1\nvalue = [0, 0, 0, 1]"] ;
349 -> 355 ;
356 [label="entropy = 0.0\nsamples = 1\nvalue = [0, 1, 0, 0]"] ;
348 -> 356 ;
357 [label="y_mean <= -1.24\nentropy = 1.0\nsamples = 4\nvalue = [0, 2, 2, 0]"] ;
347 -> 357 ;
358 [label="entropy = 0.0\nsamples = 2\nvalue = [0, 2, 0, 0]"] ;
357 -> 358 ;
359 [label="entropy = 0.0\nsamples = 2\nvalue = [0, 0, 2, 0]"] ;
357 -> 359 ;
360 [label="y_mean <= -0.245\nentropy = 0.466\nsamples = 77\nvalue = [0, 2, 71, 4]"] ;
346 -> 360 ;
361 [label="max rfft y <= 6.239\nentropy = 0.349\nsamples = 61\nvalue = [0, 0, 57, 4]"] ;
360 -> 361 ;
362 [label="y_mean <= -0.336\nentropy = 0.286\nsamples = 60\nvalue = [0, 0, 57, 3]"] ;
361 -> 362 ;
363 [label="entropy = 0.0\nsamples = 42\nvalue = [0, 0, 42, 0]"] ;
362 -> 363 ;
364 [label="y_mean <= -0.329\nentropy = 0.65\nsamples = 18\nvalue = [0, 0, 15, 3]"] ;
362 -> 364 ;
365 [label="entropy = 0.0\nsamples = 2\nvalue = [0, 0, 0, 2]"] ;
364 -> 365 ;
366 [label="max rfft y <= 1.764\nentropy = 0.337\nsamples = 16\nvalue = [0, 0, 15, 1]"] ;
364 -> 366 ;
367 [label="y_mean <= -0.287\nentropy = 1.0\nsamples = 2\nvalue = [0, 0, 1, 1]"] ;
366 -> 367 ;
368 [label="entropy = 0.0\nsamples = 1\nvalue = [0, 0, 1, 0]"] ;
367 -> 368 ;
369 [label="entropy = 0.0\nsamples = 1\nvalue = [0, 0, 0, 1]"] ;
367 -> 369 ;
370 [label="entropy = 0.0\nsamples = 14\nvalue = [0, 0, 14, 0]"] ;
366 -> 370 ;
371 [label="entropy = 0.0\nsamples = 1\nvalue = [0, 0, 0, 1]"] ;
361 -> 371 ;
372 [label="max rfft y <= 1.573\nentropy = 0.544\nsamples = 16\nvalue = [0, 2, 14, 0]"] ;
360 -> 372 ;
373 [label="entropy = 0.0\nsamples = 1\nvalue = [0, 1, 0, 0]"] ;
372 -> 373 ;
374 [label="y_mean <= -0.242\nentropy = 0.353\nsamples = 15\nvalue = [0, 1, 14, 0]"] ;
372 -> 374 ;
375 [label="entropy = 0.0\nsamples = 1\nvalue = [0, 1, 0, 0]"] ;
374 -> 375 ;
376 [label="entropy = 0.0\nsamples = 14\nvalue = [0, 0, 14, 0]"] ;
374 -> 376 ;
377 [label="y_mean <= 0.152\nentropy = 1.398\nsamples = 594\nvalue = [46, 31, 384, 133]"] ;
345 -> 377 ;
378 [label="x_mean <= -1.5736207667951043e+18\nentropy = 1.469\nsamples = 495\nvalue = [46, 25, 302, 122]"] ;
377 -> 378 ;
379 [label="max rfft y <= 3.149\nentropy = 1.441\nsamples = 471\nvalue = [42, 25, 297, 107]"] ;
378 -> 379 ;
380 [label="y_mean <= -0.031\nentropy = 1.563\nsamples = 313\nvalue = [36, 19, 180, 78]"] ;
379 -> 380 ;
381 [label="y_mean <= -0.091\nentropy = 1.246\nsamples = 83\nvalue = [5, 5, 60, 13]"] ;
380 -> 381 ;
382 [label="max rfft y <= 1.681\nentropy = 1.108\nsamples = 28\nvalue = [1, 0, 18, 9]"] ;
381 -> 382 ;
383 [label="y_mean <= -0.142\nentropy = 1.371\nsamples = 5\nvalue = [1, 0, 1, 3]"] ;
382 -> 383 ;
384 [label="entropy = 1.0\nsamples = 2\nvalue = [1, 0, 1, 0]"] ;
383 -> 384 ;
385 [label="entropy = 0.0\nsamples = 3\nvalue = [0, 0, 0, 3]"] ;
383 -> 385 ;
386 [label="y_mean <= -0.192\nentropy = 0.828\nsamples = 23\nvalue = [0, 0, 17, 6]"] ;
382 -> 386 ;
387 [label="entropy = 0.0\nsamples = 2\nvalue = [0, 0, 0, 2]"] ;
386 -> 387 ;
388 [label="entropy = 0.702\nsamples = 21\nvalue = [0, 0, 17, 4]"] ;
386 -> 388 ;
389 [label="y_mean <= -0.074\nentropy = 1.162\nsamples = 55\nvalue = [4, 5, 42, 4]"] ;
381 -> 389 ;
390 [label="max rfft y <= 2.641\nentropy = 1.379\nsamples = 14\nvalue = [2, 4, 8, 0]"] ;
389 -> 390 ;
391 [label="entropy = 0.922\nsamples = 10\nvalue = [1, 1, 8, 0]"] ;
390 -> 391 ;
392 [label="entropy = 0.811\nsamples = 4\nvalue = [1, 3, 0, 0]"] ;
390 -> 392 ;
393 [label="y_mean <= -0.056\nentropy = 0.895\nsamples = 41\nvalue = [2, 1, 34, 4]"] ;
389 -> 393 ;
394 [label="entropy = 0.0\nsamples = 15\nvalue = [0, 0, 15, 0]"] ;
393 -> 394 ;
395 [label="entropy = 1.212\nsamples = 26\nvalue = [2, 1, 19, 4]"] ;
393 -> 395 ;
396 [label="y_mean <= -0.003\nentropy = 1.64\nsamples = 230\nvalue = [31, 14, 120, 65]"] ;
380 -> 396 ;
397 [label="y_mean <= -0.007\nentropy = 1.755\nsamples = 54\nvalue = [6, 7, 26, 15]"] ;
396 -> 397 ;
398 [label="y_mean <= -0.017\nentropy = 1.805\nsamples = 44\nvalue = [6, 5, 18, 15]"] ;
397 -> 398 ;
399 [label="entropy = 1.451\nsamples = 23\nvalue = [4, 0, 12, 7]"] ;
398 -> 399 ;
400 [label="entropy = 1.863\nsamples = 21\nvalue = [2, 5, 6, 8]"] ;
398 -> 400 ;
401 [label="y_mean <= -0.004\nentropy = 0.722\nsamples = 10\nvalue = [0, 2, 8, 0]"] ;
397 -> 401 ;
402 [label="entropy = 0.503\nsamples = 9\nvalue = [0, 1, 8, 0]"] ;
401 -> 402 ;
403 [label="entropy = 0.0\nsamples = 1\nvalue = [0, 1, 0, 0]"] ;
401 -> 403 ;
404 [label="max rfft y <= 1.539\nentropy = 1.584\nsamples = 176\nvalue = [25, 7, 94, 50]"] ;
396 -> 404 ;
405 [label="y_mean <= 0.075\nentropy = 0.918\nsamples = 6\nvalue = [0, 0, 2, 4]"] ;
404 -> 405 ;
406 [label="entropy = 0.0\nsamples = 4\nvalue = [0, 0, 0, 4]"] ;
405 -> 406 ;
407 [label="entropy = 0.0\nsamples = 2\nvalue = [0, 0, 2, 0]"] ;
405 -> 407 ;
408 [label="max rfft y <= 1.56\nentropy = 1.586\nsamples = 170\nvalue = [25, 7, 92, 46]"] ;
404 -> 408 ;
409 [label="entropy = 1.585\nsamples = 3\nvalue = [1, 1, 1, 0]"] ;
408 -> 409 ;
410 [label="entropy = 1.564\nsamples = 167\nvalue = [24, 6, 91, 46]"] ;
408 -> 410 ;
411 [label="max rfft y <= 4.653\nentropy = 1.128\nsamples = 158\nvalue = [6, 6, 117, 29]"] ;
379 -> 411 ;
412 [label="y_mean <= -0.084\nentropy = 1.158\nsamples = 98\nvalue = [5, 6, 74, 13]"] ;
411 -> 412 ;
413 [label="y_mean <= -0.087\nentropy = 0.744\nsamples = 26\nvalue = [3, 1, 22, 0]"] ;
412 -> 413 ;
414 [label="max rfft y <= 3.337\nentropy = 0.497\nsamples = 24\nvalue = [1, 1, 22, 0]"] ;
413 -> 414 ;
415 [label="entropy = 0.811\nsamples = 4\nvalue = [0, 1, 3, 0]"] ;
414 -> 415 ;
416 [label="entropy = 0.286\nsamples = 20\nvalue = [1, 0, 19, 0]"] ;
414 -> 416 ;
417 [label="entropy = 0.0\nsamples = 2\nvalue = [2, 0, 0, 0]"] ;
413 -> 417 ;
418 [label="max rfft y <= 4.018\nentropy = 1.196\nsamples = 72\nvalue = [2, 5, 52, 13]"] ;
412 -> 418 ;
419 [label="max rfft y <= 3.584\nentropy = 0.926\nsamples = 48\nvalue = [1, 2, 39, 6]"] ;
418 -> 419 ;
420 [label="entropy = 1.043\nsamples = 24\nvalue = [0, 1, 17, 6]"] ;
419 -> 420 ;
421 [label="entropy = 0.497\nsamples = 24\nvalue = [1, 1, 22, 0]"] ;
419 -> 421 ;
422 [label="max rfft y <= 4.073\nentropy = 1.564\nsamples = 24\nvalue = [1, 3, 13, 7]"] ;
418 -> 422 ;
423 [label="entropy = 0.918\nsamples = 3\nvalue = [0, 1, 0, 2]"] ;
422 -> 423 ;
424 [label="entropy = 1.453\nsamples = 21\nvalue = [1, 2, 13, 5]"] ;
422 -> 424 ;
425 [label="y_mean <= 0.054\nentropy = 0.951\nsamples = 60\nvalue = [1, 0, 43, 16]"] ;
411 -> 425 ;
426 [label="y_mean <= -0.152\nentropy = 0.918\nsamples = 45\nvalue = [0, 0, 30, 15]"] ;
425 -> 426 ;
427 [label="entropy = 0.0\nsamples = 5\nvalue = [0, 0, 5, 0]"] ;
426 -> 427 ;
428 [label="y_mean <= -0.013\nentropy = 0.954\nsamples = 40\nvalue = [0, 0, 25, 15]"] ;
426 -> 428 ;
429 [label="entropy = 0.992\nsamples = 29\nvalue = [0, 0, 16, 13]"] ;
428 -> 429 ;
430 [label="entropy = 0.684\nsamples = 11\nvalue = [0, 0, 9, 2]"] ;
428 -> 430 ;
431 [label="y_mean <= 0.064\nentropy = 0.7\nsamples = 15\nvalue = [1, 0, 13, 1]"] ;
425 -> 431 ;
432 [label="entropy = 0.0\nsamples = 1\nvalue = [1, 0, 0, 0]"] ;
431 -> 432 ;
433 [label="max rfft y <= 4.849\nentropy = 0.371\nsamples = 14\nvalue = [0, 0, 13, 1]"] ;
431 -> 433 ;
434 [label="entropy = 0.811\nsamples = 4\nvalue = [0, 0, 3, 1]"] ;
433 -> 434 ;
435 [label="entropy = 0.0\nsamples = 10\nvalue = [0, 0, 10, 0]"] ;
433 -> 435 ;
436 [label="max rfft x <= 1.66664997961728e+16\nentropy = 1.326\nsamples = 24\nvalue = [4, 0, 5, 15]"] ;
378 -> 436 ;
437 [label="entropy = 0.0\nsamples = 15\nvalue = [0, 0, 0, 15]"] ;
436 -> 437 ;
438 [label="z_mean <= 1.2534556251704525e+18\nentropy = 0.991\nsamples = 9\nvalue = [4, 0, 5, 0]"] ;
436 -> 438 ;
439 [label="entropy = 0.0\nsamples = 4\nvalue = [4, 0, 0, 0]"] ;
438 -> 439 ;
440 [label="entropy = 0.0\nsamples = 5\nvalue = [0, 0, 5, 0]"] ;
438 -> 440 ;
441 [label="x_mean <= -1.1831513398619668e+18\nentropy = 0.822\nsamples = 99\nvalue = [0, 6, 82, 11]"] ;
377 -> 441 ;
442 [label="max rfft y <= 6.276\nentropy = 0.684\nsamples = 93\nvalue = [0, 6, 81, 6]"] ;
441 -> 442 ;
443 [label="y_mean <= 0.24\nentropy = 0.568\nsamples = 90\nvalue = [0, 4, 81, 5]"] ;
442 -> 443 ;
444 [label="max rfft y <= 3.319\nentropy = 0.328\nsamples = 61\nvalue = [0, 2, 58, 1]"] ;
443 -> 444 ;
445 [label="max rfft y <= 3.299\nentropy = 0.469\nsamples = 10\nvalue = [0, 0, 9, 1]"] ;
444 -> 445 ;
446 [label="entropy = 0.0\nsamples = 9\nvalue = [0, 0, 9, 0]"] ;
445 -> 446 ;
447 [label="entropy = 0.0\nsamples = 1\nvalue = [0, 0, 0, 1]"] ;
445 -> 447 ;
448 [label="y_mean <= 0.196\nentropy = 0.239\nsamples = 51\nvalue = [0, 2, 49, 0]"] ;
444 -> 448 ;
449 [label="y_mean <= 0.195\nentropy = 0.381\nsamples = 27\nvalue = [0, 2, 25, 0]"] ;
448 -> 449 ;
450 [label="entropy = 0.235\nsamples = 26\nvalue = [0, 1, 25, 0]"] ;
449 -> 450 ;
451 [label="entropy = 0.0\nsamples = 1\nvalue = [0, 1, 0, 0]"] ;
449 -> 451 ;
452 [label="entropy = 0.0\nsamples = 24\nvalue = [0, 0, 24, 0]"] ;
448 -> 452 ;
453 [label="y_mean <= 0.249\nentropy = 0.926\nsamples = 29\nvalue = [0, 2, 23, 4]"] ;
443 -> 453 ;
454 [label="max rfft y <= 4.946\nentropy = 1.522\nsamples = 5\nvalue = [0, 2, 2, 1]"] ;
453 -> 454 ;
455 [label="max rfft y <= 4.844\nentropy = 0.918\nsamples = 3\nvalue = [0, 0, 2, 1]"] ;
454 -> 455 ;
456 [label="entropy = 0.0\nsamples = 1\nvalue = [0, 0, 0, 1]"] ;
455 -> 456 ;
457 [label="entropy = 0.0\nsamples = 2\nvalue = [0, 0, 2, 0]"] ;
455 -> 457 ;
458 [label="entropy = 0.0\nsamples = 2\nvalue = [0, 2, 0, 0]"] ;
454 -> 458 ;
459 [label="max rfft y <= 5.773\nentropy = 0.544\nsamples = 24\nvalue = [0, 0, 21, 3]"] ;
453 -> 459 ;
460 [label="y_mean <= 0.287\nentropy = 0.696\nsamples = 16\nvalue = [0, 0, 13, 3]"] ;
459 -> 460 ;
461 [label="entropy = 0.567\nsamples = 15\nvalue = [0, 0, 13, 2]"] ;
460 -> 461 ;
462 [label="entropy = 0.0\nsamples = 1\nvalue = [0, 0, 0, 1]"] ;
460 -> 462 ;
463 [label="entropy = 0.0\nsamples = 8\nvalue = [0, 0, 8, 0]"] ;
459 -> 463 ;
464 [label="y_mean <= 0.328\nentropy = 0.918\nsamples = 3\nvalue = [0, 2, 0, 1]"] ;
442 -> 464 ;
465 [label="entropy = 0.0\nsamples = 2\nvalue = [0, 2, 0, 0]"] ;
464 -> 465 ;
466 [label="entropy = 0.0\nsamples = 1\nvalue = [0, 0, 0, 1]"] ;
464 -> 466 ;
467 [label="pitch <= -15.332\nentropy = 0.65\nsamples = 6\nvalue = [0, 0, 1, 5]"] ;
441 -> 467 ;
468 [label="entropy = 0.0\nsamples = 5\nvalue = [0, 0, 0, 5]"] ;
467 -> 468 ;
469 [label="entropy = 0.0\nsamples = 1\nvalue = [0, 0, 1, 0]"] ;
467 -> 469 ;
470 [label="max rfft y <= 18.043\nentropy = 0.485\nsamples = 502\nvalue = [1, 6, 459, 36]"] ;
344 -> 470 ;
471 [label="y_mean <= 0.364\nentropy = 0.671\nsamples = 286\nvalue = [1, 6, 248, 31]"] ;
470 -> 471 ;
472 [label="max rfft y <= 13.207\nentropy = 0.694\nsamples = 185\nvalue = [1, 1, 156, 27]"] ;
471 -> 472 ;
473 [label="y_mean <= -0.104\nentropy = 0.596\nsamples = 145\nvalue = [1, 1, 128, 15]"] ;
472 -> 473 ;
474 [label="max rfft y <= 9.604\nentropy = 0.127\nsamples = 57\nvalue = [0, 0, 56, 1]"] ;
473 -> 474 ;
475 [label="entropy = 0.0\nsamples = 35\nvalue = [0, 0, 35, 0]"] ;
474 -> 475 ;
476 [label="max rfft y <= 9.653\nentropy = 0.267\nsamples = 22\nvalue = [0, 0, 21, 1]"] ;
474 -> 476 ;
477 [label="entropy = 0.0\nsamples = 1\nvalue = [0, 0, 0, 1]"] ;
476 -> 477 ;
478 [label="entropy = 0.0\nsamples = 21\nvalue = [0, 0, 21, 0]"] ;
476 -> 478 ;
479 [label="y_mean <= 0.002\nentropy = 0.806\nsamples = 88\nvalue = [1, 1, 72, 14]"] ;
473 -> 479 ;
480 [label="y_mean <= -0.017\nentropy = 1.373\nsamples = 26\nvalue = [1, 1, 14, 10]"] ;
479 -> 480 ;
481 [label="max rfft y <= 10.751\nentropy = 1.352\nsamples = 23\nvalue = [1, 1, 14, 7]"] ;
480 -> 481 ;
482 [label="y_mean <= -0.047\nentropy = 1.166\nsamples = 21\nvalue = [1, 0, 13, 7]"] ;
481 -> 482 ;
483 [label="entropy = 0.985\nsamples = 14\nvalue = [0, 0, 8, 6]"] ;
482 -> 483 ;
484 [label="entropy = 1.149\nsamples = 7\nvalue = [1, 0, 5, 1]"] ;
482 -> 484 ;
485 [label="max rfft y <= 11.003\nentropy = 1.0\nsamples = 2\nvalue = [0, 1, 1, 0]"] ;
481 -> 485 ;
486 [label="entropy = 0.0\nsamples = 1\nvalue = [0, 1, 0, 0]"] ;
485 -> 486 ;
487 [label="entropy = 0.0\nsamples = 1\nvalue = [0, 0, 1, 0]"] ;
485 -> 487 ;
488 [label="entropy = 0.0\nsamples = 3\nvalue = [0, 0, 0, 3]"] ;
480 -> 488 ;
489 [label="max rfft y <= 8.557\nentropy = 0.345\nsamples = 62\nvalue = [0, 0, 58, 4]"] ;
479 -> 489 ;
490 [label="max rfft y <= 8.48\nentropy = 0.513\nsamples = 35\nvalue = [0, 0, 31, 4]"] ;
489 -> 490 ;
491 [label="max rfft y <= 7.317\nentropy = 0.431\nsamples = 34\nvalue = [0, 0, 31, 3]"] ;
490 -> 491 ;
492 [label="entropy = 0.629\nsamples = 19\nvalue = [0, 0, 16, 3]"] ;
491 -> 492 ;
493 [label="entropy = 0.0\nsamples = 15\nvalue = [0, 0, 15, 0]"] ;
491 -> 493 ;
494 [label="entropy = 0.0\nsamples = 1\nvalue = [0, 0, 0, 1]"] ;
490 -> 494 ;
495 [label="entropy = 0.0\nsamples = 27\nvalue = [0, 0, 27, 0]"] ;
489 -> 495 ;
496 [label="y_mean <= -0.913\nentropy = 0.881\nsamples = 40\nvalue = [0, 0, 28, 12]"] ;
472 -> 496 ;
497 [label="entropy = 0.0\nsamples = 5\nvalue = [0, 0, 5, 0]"] ;
496 -> 497 ;
498 [label="y_mean <= -0.516\nentropy = 0.928\nsamples = 35\nvalue = [0, 0, 23, 12]"] ;
496 -> 498 ;
499 [label="max rfft y <= 15.336\nentropy = 0.918\nsamples = 6\nvalue = [0, 0, 2, 4]"] ;
498 -> 499 ;
500 [label="entropy = 0.0\nsamples = 2\nvalue = [0, 0, 2, 0]"] ;
499 -> 500 ;
501 [label="entropy = 0.0\nsamples = 4\nvalue = [0, 0, 0, 4]"] ;
499 -> 501 ;
502 [label="y_mean <= -0.269\nentropy = 0.85\nsamples = 29\nvalue = [0, 0, 21, 8]"] ;
498 -> 502 ;
503 [label="entropy = 0.0\nsamples = 6\nvalue = [0, 0, 6, 0]"] ;
502 -> 503 ;
504 [label="max rfft y <= 14.273\nentropy = 0.932\nsamples = 23\nvalue = [0, 0, 15, 8]"] ;
502 -> 504 ;
505 [label="y_mean <= 0.078\nentropy = 0.991\nsamples = 9\nvalue = [0, 0, 4, 5]"] ;
504 -> 505 ;
506 [label="entropy = 0.985\nsamples = 7\nvalue = [0, 0, 4, 3]"] ;
505 -> 506 ;
507 [label="entropy = 0.0\nsamples = 2\nvalue = [0, 0, 0, 2]"] ;
505 -> 507 ;
508 [label="max rfft y <= 17.862\nentropy = 0.75\nsamples = 14\nvalue = [0, 0, 11, 3]"] ;
504 -> 508 ;
509 [label="entropy = 0.619\nsamples = 13\nvalue = [0, 0, 11, 2]"] ;
508 -> 509 ;
510 [label="entropy = 0.0\nsamples = 1\nvalue = [0, 0, 0, 1]"] ;
508 -> 510 ;
511 [label="y_mean <= 0.49\nentropy = 0.522\nsamples = 101\nvalue = [0, 5, 92, 4]"] ;
471 -> 511 ;
512 [label="y_mean <= 0.423\nentropy = 0.156\nsamples = 44\nvalue = [0, 1, 43, 0]"] ;
511 -> 512 ;
513 [label="entropy = 0.0\nsamples = 27\nvalue = [0, 0, 27, 0]"] ;
512 -> 513 ;
514 [label="y_mean <= 0.426\nentropy = 0.323\nsamples = 17\nvalue = [0, 1, 16, 0]"] ;
512 -> 514 ;
515 [label="entropy = 0.0\nsamples = 1\nvalue = [0, 1, 0, 0]"] ;
514 -> 515 ;
516 [label="entropy = 0.0\nsamples = 16\nvalue = [0, 0, 16, 0]"] ;
514 -> 516 ;
517 [label="max rfft y <= 13.159\nentropy = 0.726\nsamples = 57\nvalue = [0, 4, 49, 4]"] ;
511 -> 517 ;
518 [label="max rfft y <= 12.625\nentropy = 1.158\nsamples = 24\nvalue = [0, 3, 17, 4]"] ;
517 -> 518 ;
519 [label="y_mean <= 0.521\nentropy = 0.994\nsamples = 22\nvalue = [0, 2, 17, 3]"] ;
518 -> 519 ;
520 [label="max rfft y <= 9.859\nentropy = 1.0\nsamples = 4\nvalue = [0, 0, 2, 2]"] ;
519 -> 520 ;
521 [label="entropy = 0.0\nsamples = 1\nvalue = [0, 0, 0, 1]"] ;
520 -> 521 ;
522 [label="y_mean <= 0.507\nentropy = 0.918\nsamples = 3\nvalue = [0, 0, 2, 1]"] ;
520 -> 522 ;
523 [label="entropy = 0.0\nsamples = 2\nvalue = [0, 0, 2, 0]"] ;
522 -> 523 ;
524 [label="entropy = 0.0\nsamples = 1\nvalue = [0, 0, 0, 1]"] ;
522 -> 524 ;
525 [label="y_mean <= 0.586\nentropy = 0.803\nsamples = 18\nvalue = [0, 2, 15, 1]"] ;
519 -> 525 ;
526 [label="y_mean <= 0.579\nentropy = 0.863\nsamples = 7\nvalue = [0, 2, 5, 0]"] ;
525 -> 526 ;
527 [label="entropy = 0.65\nsamples = 6\nvalue = [0, 1, 5, 0]"] ;
526 -> 527 ;
528 [label="entropy = 0.0\nsamples = 1\nvalue = [0, 1, 0, 0]"] ;
526 -> 528 ;
529 [label="max rfft y <= 12.301\nentropy = 0.439\nsamples = 11\nvalue = [0, 0, 10, 1]"] ;
525 -> 529 ;
530 [label="entropy = 0.0\nsamples = 6\nvalue = [0, 0, 6, 0]"] ;
529 -> 530 ;
531 [label="entropy = 0.722\nsamples = 5\nvalue = [0, 0, 4, 1]"] ;
529 -> 531 ;
532 [label="max rfft y <= 12.908\nentropy = 1.0\nsamples = 2\nvalue = [0, 1, 0, 1]"] ;
518 -> 532 ;
533 [label="entropy = 0.0\nsamples = 1\nvalue = [0, 1, 0, 0]"] ;
532 -> 533 ;
534 [label="entropy = 0.0\nsamples = 1\nvalue = [0, 0, 0, 1]"] ;
532 -> 534 ;
535 [label="y_mean <= 0.854\nentropy = 0.196\nsamples = 33\nvalue = [0, 1, 32, 0]"] ;
517 -> 535 ;
536 [label="entropy = 0.0\nsamples = 30\nvalue = [0, 0, 30, 0]"] ;
535 -> 536 ;
537 [label="y_mean <= 0.862\nentropy = 0.918\nsamples = 3\nvalue = [0, 1, 2, 0]"] ;
535 -> 537 ;
538 [label="entropy = 0.0\nsamples = 1\nvalue = [0, 1, 0, 0]"] ;
537 -> 538 ;
539 [label="entropy = 0.0\nsamples = 2\nvalue = [0, 0, 2, 0]"] ;
537 -> 539 ;
540 [label="y_mean <= 1.1\nentropy = 0.159\nsamples = 216\nvalue = [0, 0, 211, 5]"] ;
470 -> 540 ;
541 [label="max rfft y <= 83.707\nentropy = 0.057\nsamples = 151\nvalue = [0, 0, 150, 1]"] ;
540 -> 541 ;
542 [label="entropy = 0.0\nsamples = 130\nvalue = [0, 0, 130, 0]"] ;
541 -> 542 ;
543 [label="max rfft y <= 84.802\nentropy = 0.276\nsamples = 21\nvalue = [0, 0, 20, 1]"] ;
541 -> 543 ;
544 [label="entropy = 0.0\nsamples = 1\nvalue = [0, 0, 0, 1]"] ;
543 -> 544 ;
545 [label="entropy = 0.0\nsamples = 20\nvalue = [0, 0, 20, 0]"] ;
543 -> 545 ;
546 [label="y_mean <= 1.123\nentropy = 0.334\nsamples = 65\nvalue = [0, 0, 61, 4]"] ;
540 -> 546 ;
547 [label="entropy = 0.0\nsamples = 2\nvalue = [0, 0, 0, 2]"] ;
546 -> 547 ;
548 [label="y_mean <= 1.638\nentropy = 0.203\nsamples = 63\nvalue = [0, 0, 61, 2]"] ;
546 -> 548 ;
549 [label="y_mean <= 1.613\nentropy = 0.371\nsamples = 28\nvalue = [0, 0, 26, 2]"] ;
548 -> 549 ;
550 [label="entropy = 0.0\nsamples = 26\nvalue = [0, 0, 26, 0]"] ;
549 -> 550 ;
551 [label="entropy = 0.0\nsamples = 2\nvalue = [0, 0, 0, 2]"] ;
549 -> 551 ;
552 [label="entropy = 0.0\nsamples = 35\nvalue = [0, 0, 35, 0]"] ;
548 -> 552 ;
}